0,0,0
-1.1029235560496187,0.27259714913418864,-1.0952990126039805,0.3579460460693283,-0.8026102252119848,-0.025220515808256586,-1.2363371323386267,-0.16408012368320185,-0.7102334627272567,0.3546049149963298,-0.3637974870168589,0.27089251516389673,-1.1918631572265934,0.22221911486805715,-0.7290582517816083,0.03405940015143579,0.19556655071979068,-0.04863806411702517,0.17675089009338957,-0.08148657386876904,0.02715283960106041,-0.17893066876415625,-0.18557493787740434,0.4259628162859141,-0.21647067665933553,0.30454773602998164,1.0481608525137913,0.19811417458387168,0.5495922220303238,-0.6577073595649704,0.7710650526767399,0.3803149397334231,1.353285203329284,-0.24270681221378726,-0.7376682415785721,-0.3315991574122783,-0.2187389246108737,0.46997043330517,-0.5430160199724702,-0.3005342623379094,-0.7787652797588737,0.2347208095094619,-1.068799601888003,0.06436475991768474,-0.7028457779634015,0.15879389465503285,-1.5231954857592689,0.3584802459343299,-0.22704754983108397,-0.23876650073195127,-1.0189637870273656,-0.08934079255900006,-0.18974171367554926,0.08788340106910512,-0.03936227755452266,-0.4366591566751021,-0.9318541863611892,0.48446604264177834,-0.6614165580588663,0.2676115067847501,0.9760310317960117,-1.0074005520312341,1.0627451414714206,0.48813414497307756,0.5538804474636182,-0.1495621634924409,0.4047531800104877,-0.0750272569141819,0.5320368875159378,0.07281883427458173,0.3340843997259185,-0.2440928724381216,-0.036826883677136796,-0.419582674685174,0.6785408219907793,0.028208155672225347,1.1736355990981988,-0.4671417799275938,1.0820436403914766,0.11330255566714398,1.252052954058983,-0.19230499509455642,0.7835522519098382,0.012408061814643588,0.6541007377747553,-0.1928132972077462,-0.17493971811489653,-0.20918046213759792,-0.19225370391312002,0.230396223249087,0.988717512381007,0.025255460554830005,0.6434313561098588,-0.1890762644990114,-1.1358347604697734,1.0788602345208642,-0.9942065270783774,-0.33342386585749495,-0.25732050172873233,0.48242282737323705,-0.663470124499309,-0.25683764567101397,-1.1187308380315653,-0.3034611412145468,-1.0632034906914845,-0.2107615238018346,-1.410673245697842,0.2099181859778438,-0.8799760171687414,-0.4227619616193913,-0.7555123203242142,-0.19242740030687872,-0.7481026263321296,-0.11070521320783747,-0.8562685774773993,0.056746765011098835,-0.7883714134948934,0.5125569766789841,-0.3788482376398997,-0.00861247785209686,0.38635257885199603,0.380579301520926,-0.3293253979516772,0.21872151626062195,-0.2352476337394838,0.8791461673615749,-0.5672881867397261,0.6092850703513021,1.1699900043258715,-0.32628210168551336,0.5541326583141037,0.3324437854538593,1.078765025240315,-0.1680520883418168,1.0368318410813178,0.2328959746440251,-0.5223428589663457,-0.4281891321488768,-0.2921329983497919,-0.25382945574410726,-0.38591005803810907,-0.09440746598581375,-0.6392906043323111,0.4840809273448679,-0.6403604676508744,0.02247370998951219,-0.22913010640775316,0.419142237066832,-0.4304039872590274,-0.11532772537376534,0.13216649208782497,-0.0361706036294751,-0.4846601600744402,-0.30452987365894557,0.47008132697298655,0.10377491062090385,0.08688105670690675,0.6231353895583059,-0.3522391223300027,0.22839870540834734,0.10429147138548363,0.4472435027425723,-0.014539694113195235,0.39037878059450026,0.06828282509626662,-0.2809377685448792,1.0427674053922145,-0.33557902781859716,1.232759300544165,-0.4687540740196259,0.6825031673965808,0.09299560722105604,0.8110247032019163,-0.540536495037461,0.6678583690144824,-0.4608623081665199,1.1514778561341377,-0.22362732552074624,0.7292475987948713,-0.5544963023990496,0.9199414773990585,-0.02731605210762502,1.442544416258941,-0.1234651420388082,0.7266733038931684,0.5272770716027414,0.5585760577910712,-0.333500465397636,0.09018718603904408,0.08040281415361393,0.6749069584574606,-0.07892727623719192,1.0621795751139835,-0.5489516353764049,0.7355657414436376,-0.5186345476111801,-0.6955924494545983,0.7042898625924928,-1.006613270109687,-0.24097129833697695,-0.3884725429983387,0.5380185456534534,-0.5353977080050001,-0.20408723696737827,-0.12720049837587433,-0.5885566007840938,0.7145080019932771,-0.5176898621724959,0.4859691915200235,-0.10727647221252339,-0.020448901933276527,0.34797693472363006,0.8816361236410291,0.04677418849900685,0.21971930981494578,0.06633475666976939,1.0187720353964476,-0.08780277935913607,0.1298295103145625,0.12050354458679159,0.7256072674270804,0.2867370549833687,0.07529828061308548,-0.31862805597820143,0.6059063398554079,0.03197473836575238,0.867542788203099,-0.40187423258535204,0.4142929054948873,-0.36549258050049516,-0.6596104262060957,0.2894394857094158,-0.43935038351393185,0.17679006118066648,-0.5445089469456325,0.678318581718279,-0.5442506872348227,0.10046911798336121,-0.641151276595622,-0.4160220599312411,-0.5633805616265954,0.27180674903371943,-0.3065247213945797,-0.3699842671698756,-0.6843218664686046,-0.08858699116626878,-0.8182692933413309,0.24056404296649972,-0.5595624654174752,0.5019558854517764,-0.9154647611836632,0.19031537026776243,-0.25751550352895664,-0.19578156990508033,-0.397007106838697,-0.14415147821842117,0.029311728015723328,-0.3258023493002991,-0.34109813996090615,0.12682629222048686,-0.1993862777229575,0.37757623813906643,0.18463081843226803,0.08844635366482173,0.48911589307860087,-0.5829081348680968,0.9170844598554287,0.16739785067744678,0.33820059180584006,0.06834339652215678,0.6847559840491377,0.1742024421734621,-1.1175338345443468,0.19571489191881886,-0.8548440959435706,0.43079228529540253,-1.2362820131937184,-0.34882237050280046,-0.9406770860435751,-0.28241015478975745,-1.0914341782525934,-0.4639607329548296,-0.7884350952621131,0.25634004434176644,-0.8870454154592019,0.3303951158755296,-0.6379435715932895,0.6704262702046079,-0.1348203646759426,0.19216836835298506,0.23318648471232642,0.09037039980101903,0.09275562010775082,-0.3500350515950643,-0.5100034452814524,0.32946929523108126,0.07710744264323506,0.5865696024869121,0.6740872035956507,-0.1580048137543353,1.1978328552142068,-0.5250028390450691,0.9640383096771169,-0.6103895422090925,1.5029190920974163,-0.03595298938139016,0.5375555224962763,-0.19928601344055485,0.8853013333408744,-0.038630855805964016,0.5109801859736306,-0.017645841625182238,0.17901284165587575,-0.475293729236163,1.0491876860585518,0.18045058798051064,1.222510551489491,0.04374269520345622,1.700680856272277,-0.5795942398918581,0.3147413051955949,-0.45328067923104504,0.6734783278197879,0.2876801100519772,0.12116568869953562,-0.7066512210379059,0.7083557504762872,-0.21316157783486964,0.9572306650435313,0.3312884382239915,0.27941066225945754,-0.4625409721867368,-1.5778440180711657,0.9967729868004394,-0.6731813687337045,-0.2836904534004869,-0.21121001159946717,0.6195561525406775,-1.3062011819246244,-0.6443765867363749,-0.48506313442063637,-0.5103038778689153,-0.41737184996486465,0.3149738984769703,-0.27466264841758703,-0.5731102834233295,-0.188866532012548,-0.20111119517451928,-0.07496920726660797,-0.647061536027845,-0.42219827978924357,0.023016210470453817,-0.40560058616666644,0.07496727553745379,-0.5965135910708806,-0.15896959366901192,0.14801169208616152,-0.09365426935149924,-0.034759131615145336,0.32159507521618647,-0.5800667457169314,0.36328092975288395,-0.005232882328847077,0.26388601533733286,-0.30257898544960987,0.05254439126376003,0.19811507631048364,-0.4434613567639765,0.20836219730525699,-0.3576387848465149,-0.32478929734136575,-0.45122207615380083,-0.3524549148048439,-0.41993255216792214,-0.5295710604853355,-0.36051660674417696,-0.5808220831850082,0.4270650595172667,-0.5657536340281079,0.1880063745693027,-0.7598209584237009,0.40981419610294845,-0.28594090558262547,0.12677772404829274,-1.161124691643107,-0.2864027662157581,-1.331957652737802,0.2088721079672335,-0.8009539485113818,-0.30608164217465805,-0.8621852164430002,0.2734128268019121,0.5435534950007441,-0.09787983544482555,-0.526975009014311,-0.09152516364281024,-0.9599281507895684,0.4178918245826581,-0.07837991516783563,0.36649829178408366,1.0058308000833422,-1.1770269659666213,0.9033728031028578,0.5682316034875087,0.23139172009603068,-0.19035883925412217,1.053712062191531,-0.17013943717956675,0.3545863765259348,0.11454012364405795,0.45662808436228003,0.3431612957034,0.6640202886408004,0.24340171393135096,0.3394823671236371,0.09334042409179812,0.493455516319068,-0.11375485060535004,-0.03500061172972124,-0.15607830619779722,0.9765958833810907,-0.23253244072048937,0.16248403383441515,-0.4309183155137389,0.5636107480697151,0.08926417428289847,0.1631946973576573,-0.3623514063128337,-0.24183653250427056,-0.38372698109008047,0.7101956334481362,-0.3025580787611723,0.37251418357287114,-0.37177229968800996,-0.7056354701919542,0.6188004703525344,-0.67072785450237,-0.13444656420761905,-0.44795925957179833,0.6412922859829263,-0.8336103917876274,-0.3256977324395003,-0.6670825404029215,0.0886900030934098,-0.4276970021555804,-0.3164747935232327,-0.8070579808583187,-0.42376071158143547,-0.4642211366137726,0.26959536581696025,-0.2820833003865985,-0.2424477942124047,-0.5036829126264419,0.44179774367993047,-0.08531046558852384,0.11282165877785227,0.03020390722352746,0.22020204926476702,-0.5398466827149125,-0.35663479390338865,0.3821366671663827,0.04952486638497156,-0.5384820785811062,-0.37163490289275075,0.08876135591070289,0.44074139309617527,-0.4064380563281406,0.6364601502953476,-0.02367768933425116,0.6413717068013786,0.17326978121249295,0.2916102556943533,1.4133861041770643,-0.30972091451071,0.7305922674011436,-0.23874353523571715,0.7640369260052587,0.3450371965941207,0.9042351172286892,-0.4507514534127362,0.7555859512526638,0.3484485717099187,0.6561846063721901,0.013532847179245027,0.8100986605887777,-0.14809686049748236,0.588907922063028,0.04118651083831672,1.3357709195384058,0.08810290866887609,0.7171934798870011,-0.49712649403816594,0.8732457512934799,-0.14879983729099597,0.03987457020282954,0.08304632329531872,0.06811677936642198,0.14564949995718024,0.1258352105593063,-0.05362408146779913,0.5210013701089176,-0.5253203320509169,-0.7458771321934521,0.1756498299655382,-0.9681799045207565,-0.385362337120108,-1.2328110185248256,0.02137188504490036,-0.9823041439051535,-0.5151801186626622
0.04863671008897482,0.6578189446884246,-0.8678333233853375,0.5606405354549827,0.3819371431130318,-0.5384745216420594,-0.32628147885454567,0.13578463337522542,0.39023716845105977,-0.5483768447175849,0.047103018480860834,0.8218915864600628,-0.008738523608203241,-0.26219767261357807,-0.29813322065579956,0.7436416983527946,0.5479327363524455,-0.5565882330767559,1.4864627756164437,0.906834609664039,-0.7967469243991199,-0.6688048741433616,0.7529888334087446,0.9525317574804948,-0.692921005100597,0.5209527371307499,0.8522233446808928,-0.1798539686316156,0.6096610243248736,-1.32999899996236,-0.838307431248782,0.8074824221385909,-0.33519367310613946,-0.15858258028371636,-0.8601311755063007,-0.5551451297953349,-0.19136538617057255,-0.3800662952902359,-0.7560900830647362,0.6890304849395633,0.747761604095469,0.21853301592452173,0.6292006128445193,-0.22185902646143152,0.40993025584745046,-0.5746160578298427,-0.3130236202745909,0.6609941395605615,-0.17234761917923322,0.05814873797442197,-0.05283910838833379,-0.30894928540446853,-0.47783426157063924,-0.34230280447628675,0.4883697864987812,-0.2454616197516846,-0.3110180546284023,0.5044153663268621,-0.08064660846627715,0.3301043370342197,-1.635515929559375,-1.071774875455499,0.9793405338727388,-1.9542434812573724,-0.5708490907932947,1.0742224669335048,0.5061148903161491,-1.2802336828485839,-1.8279644095151086,1.3372933693565625,-0.278681542326305,-0.7995636826525022,0.9595058764505723,-1.0962493810504987,0.6915800483705673,-1.36982303313054,-1.0895280261509406,0.761827758434388,-1.1569490351821277,-0.3572234245793967,0.9462442994046532,0.31722746606079694,-0.7213292465439946,-0.9750496513239885,0.7409688856748665,-0.5780148564041581,-0.26681863742524,0.26686003388647184,-0.8678869564791964,0.6348708646449129,1.5676822724659112,1.3738155912861454,-0.9570009454408306,1.5371742736116172,0.870669582337336,-1.0905088157033138,-1.0096256172414537,1.2150097261600492,1.875544931477516,-1.0170292350933956,0.8249245982312536,1.2003711244232549,-0.26704159334986227,1.0415571324744957,-1.3154716877624821,-0.6526525491541628,0.4123160127774126,-0.19701578320459906,-0.2731403268903382,-0.5021087591141927,-0.43142516359163086,0.006471684681484347,0.46981882540630604,-0.054604051772684015,0.42962297736386906,0.5086204238423568,0.062190234620105166,0.27681027383288936,-0.38758178589911424,0.12955997523852034,0.6901158203907084,1.8683024971305104,-1.8106692220120246,1.0270402991357128,-0.3994217257470809,-1.9198151282541671,-1.7705746983247124,0.42175122940638266,1.3267424836044945,-2.1122799398642083,1.00477038509042,1.4835849660192046,-1.2257065053940885,-0.042331527413620285,-1.7322502521338383,-0.017913198036292828,-0.171365374411156,0.8594444370734793,-0.8538307119065641,-0.19117315742346877,0.5271747232414725,0.2052240418740105,-0.7114292651142328,-0.7964160225173748,1.509025218243328,0.6429529009780057,-0.3004375051719583,0.3295100661623389,-0.6656233342777981,0.8375232394126103,-0.9476607679383551,-1.258061143499153,1.9842455975936328,-1.228729509659842,-0.3455122489126934,2.0366898388657915,0.9250730618731923,-0.7699165743579388,-0.712280033553421,2.5934554666623746,0.4766398926798155,-1.581994648149674,1.5435231040324628,-0.13216522302363273,1.709826876559084,0.38116601746513595,2.2487574880683012,-1.7736859199103707,1.167125750878952,0.3600404028005453,-2.679964850745882,-1.518157660525876,0.46592593126845017,1.1217702155535654,-1.6983820618769665,0.5219462861060269,2.1086677198003003,-0.8144507827915026,-0.5738128624987469,-1.893947399720825,-0.935185665720118,0.40921810844048323,0.2995356449271519,-0.8739093831592908,-0.9248261261349606,0.3847190890769294,-0.031497800508456214,0.06480229757404864,-0.8700220641036266,0.6571061056682577,0.980665732891281,-0.48578747198467764,0.6639093609755212,-0.764956774852933,0.7242608369731056,-0.34474806270380914,0.3043106308861182,-0.2939568487418675,0.5040082272605338,0.237686542905603,-0.2692753684503446,0.3579170018072482,0.2363811703010863,0.3965100125433449,-0.045716222103599075,-0.18883762019335998,-0.3012887146354347,0.3022428276754921,-0.25110457804144704,0.517868753718702,-0.7971701232510591,0.07773223325359878,0.9444217481577534,-1.268302589023364,-0.5788557207652758,0.1951556273210074,0.1313805120501603,0.033063965219365436,-1.0986745919313659,0.5008671721419701,0.39967888416240666,-0.41407706595756044,1.1242581702164496,-0.9323789872936832,1.2126314052781872
1.0390795060406415,0.7127821839950231,-1.5722846199760927,-0.9349328972998968,-1.8683812305321899,-1.4360644403660339,0.05207617762049367,-0.5683901406046469,2.916885548422006,-2.525819363594033,-4.490557523270912,2.9846668982621636,-1.416319096710136,-0.31655565779244543,-1.8329646967669309,-0.47398057177935793,1.7214708961466918,-1.6616109799364565,-0.12061416781226836,-3.536076414440036,-2.1249746851954727,3.220622275113214,-1.2648714011066426,-4.376534431176094,0.27496704429091434,3.145718222542183,-4.881204246705873,-1.97091321824555,-0.17629336736144263,-2.0888086192092974,-1.5991088706646304,-2.5952640446965365,-0.3957563242531714,0.6610790055017401,2.4020722368378635,1.4347253087345544,-3.422001078324399,-0.21753532898685177,-2.0664368551387384,0.4530775286869417,1.367765508772197,-1.4807235002187158,1.2968406212031134,-0.7471192925045681,1.6641844116853743
0,0,0
-0.24131397257301998,1.0431145261238512,-0.6929426473127536,0.6759774139053396,-0.4853768787343264,-1.0336119661382261,-0.41146384325532087,0.44690190751928954,0.33488074232383025,0.22813205929420027,0.7629532391891363,0.665421926977119,0.00749831504174352,-0.5059419079920028,-0.45503193164460676
0.36396205352873584,0.515475550799695,0.6059178143348768,-0.049907502133357234,-0.1369595804997189,-0.29065014640354725,0.18570491188796356,-0.11366742305370796,-0.015846862624894268,0.5409408579082107,0.42724375637572043,-0.4476219129068882,0.7404975477077929,0.4509708108380116,-0.009124330397724202
-0.2580161174357314,-0.04034068643506567,-0.5580327652579137
